<?xml version="1.0"?>
<PMML version="4.1" xmlns="http://www.dmg.org/PMML-4_1" xmlns:xsi="http://www.w3.org/2001/XMLSchema-instance" xsi:schemaLocation="http://www.dmg.org/PMML-4_1 http://www.dmg.org/v4-1/pmml-4-1.xsd">
 <Header copyright="Copyright (c) 2014 lyndonadams" description="Random Forest Tree Model">
  <Extension name="user" value="lyndonadams" extender="RR/PMML"/>
  <Application name="RR/PMML" version="1.4"/>
  <Timestamp>2014-05-23 15:47:44</Timestamp>
 </Header>
 <DataDictionary numberOfFields="9">
  <DataField name="V16" optype="categorical" dataType="string">
   <Value value="NO"/>
   <Value value="YES"/>
  </DataField>
  <DataField name="V2" optype="continuous" dataType="double"/>
  <DataField name="V3" optype="continuous" dataType="double"/>
  <DataField name="V6" optype="categorical" dataType="string"/>
  <DataField name="V8" optype="continuous" dataType="double"/>
  <DataField name="V9" optype="categorical" dataType="string"/>
  <DataField name="V11" optype="continuous" dataType="double"/>
  <DataField name="V14" optype="continuous" dataType="double"/>
  <DataField name="V15" optype="continuous" dataType="double"/>
 </DataDictionary>
 <MiningModel modelName="CreditAppPredictionRForest" functionName="classification">
  <MiningSchema>
   <MiningField name="V16" usageType="predicted" invalidValueTreatment="asIs"/>
   <MiningField name="V2" usageType="active" invalidValueTreatment="asIs"/>
   <MiningField name="V3" usageType="active" invalidValueTreatment="asIs"/>
   <MiningField name="V6" usageType="active" invalidValueTreatment="asIs"/>
   <MiningField name="V8" usageType="active" invalidValueTreatment="asIs"/>
   <MiningField name="V9" usageType="active" invalidValueTreatment="asIs"/>
   <MiningField name="V11" usageType="active" invalidValueTreatment="asIs"/>
   <MiningField name="V14" usageType="active" invalidValueTreatment="asIs"/>
   <MiningField name="V15" usageType="active" invalidValueTreatment="asIs"/>
  </MiningSchema>
  <Output>
   <OutputField name="Predicted_V16" feature="predictedValue"/>
   <OutputField name="Probability_NO" optype="continuous" dataType="double" feature="probability" value="NO"/>
   <OutputField name="Probability_YES" optype="continuous" dataType="double" feature="probability" value="YES"/>
  </Output>
  <Segmentation multipleModelMethod="majorityVote">
   <Segment id="1">
    <True/>
    <TreeModel modelName="CreditAppPredictionRForest" functionName="classification" algorithmName="randomForest" splitCharacteristic="binarySplit">
     <MiningSchema>
      <MiningField name="V16" usageType="predicted" invalidValueTreatment="asIs"/>
      <MiningField name="V2" usageType="active" invalidValueTreatment="asIs"/>
      <MiningField name="V3" usageType="active" invalidValueTreatment="asIs"/>
      <MiningField name="V6" usageType="active" invalidValueTreatment="asIs"/>
      <MiningField name="V8" usageType="active" invalidValueTreatment="asIs"/>
      <MiningField name="V9" usageType="active" invalidValueTreatment="asIs"/>
      <MiningField name="V11" usageType="active" invalidValueTreatment="asIs"/>
      <MiningField name="V14" usageType="active" invalidValueTreatment="asIs"/>
      <MiningField name="V15" usageType="active" invalidValueTreatment="asIs"/>
     </MiningSchema>
     <Node id="1">
      <True/>
      <Node id="2">
       <SimplePredicate field="V14" operator="lessOrEqual" value="25.5"/>
       <Node id="4">
        <SimplePredicate field="V11" operator="lessOrEqual" value="0.5"/>
        <Node id="8">
         <SimpleSetPredicate field="V6" booleanOperator="isIn">
          <Array n="9" type="string">&quot;cc&quot;   &quot;e&quot;   &quot;i&quot;   &quot;j&quot;   &quot;k&quot;   &quot;q&quot;   &quot;r&quot;   &quot;w&quot;   &quot;x&quot;</Array>
         </SimpleSetPredicate>
         <Node id="16" score="NO">
          <SimplePredicate field="V14" operator="lessOrEqual" value="1.5"/>
         </Node>
         <Node id="17">
          <SimplePredicate field="V14" operator="greaterThan" value="1.5"/>
          <Node id="32">
           <SimplePredicate field="V2" operator="lessOrEqual" value="215"/>
           <Node id="50" score="YES">
            <SimplePredicate field="V14" operator="lessOrEqual" value="3"/>
           </Node>
           <Node id="51">
            <SimplePredicate field="V14" operator="greaterThan" value="3"/>
            <Node id="68" score="YES">
             <SimpleSetPredicate field="V6" booleanOperator="isIn">
              <Array n="14" type="string">&quot;?&quot;   &quot;aa&quot;   &quot;c&quot;   &quot;cc&quot;   &quot;d&quot;   &quot;e&quot;   &quot;ff&quot;   &quot;i&quot;   &quot;j&quot;   &quot;m&quot;   &quot;q&quot;   &quot;r&quot;   &quot;w&quot;   &quot;x&quot;</Array>
             </SimpleSetPredicate>
            </Node>
            <Node id="69" score="NO">
             <SimpleSetPredicate field="V6" booleanOperator="isIn">
              <Array n="1" type="string">&quot;k&quot;</Array>
             </SimpleSetPredicate>
            </Node>
           </Node>
          </Node>
          <Node id="33">
           <SimplePredicate field="V2" operator="greaterThan" value="215"/>
           <Node id="52" score="NO">
            <SimplePredicate field="V15" operator="lessOrEqual" value="247.5"/>
           </Node>
           <Node id="53">
            <SimplePredicate field="V15" operator="greaterThan" value="247.5"/>
            <Node id="70">
             <SimplePredicate field="V3" operator="lessOrEqual" value="3.79"/>
             <Node id="84" score="NO">
              <SimplePredicate field="V2" operator="lessOrEqual" value="231.5"/>
             </Node>
             <Node id="85" score="YES">
              <SimplePredicate field="V2" operator="greaterThan" value="231.5"/>
             </Node>
            </Node>
            <Node id="71" score="YES">
             <SimplePredicate field="V3" operator="greaterThan" value="3.79"/>
            </Node>
           </Node>
          </Node>
         </Node>
        </Node>
        <Node id="9">
         <SimpleSetPredicate field="V6" booleanOperator="isIn">
          <Array n="6" type="string">&quot;?&quot;   &quot;aa&quot;   &quot;c&quot;   &quot;d&quot;   &quot;ff&quot;   &quot;m&quot;</Array>
         </SimpleSetPredicate>
         <Node id="18">
          <SimplePredicate field="V2" operator="lessOrEqual" value="108"/>
          <Node id="34">
           <SimplePredicate field="V15" operator="lessOrEqual" value="175"/>
           <Node id="54" score="NO">
            <SimpleSetPredicate field="V9" booleanOperator="isIn">
             <Array n="1" type="string">&quot;f&quot;</Array>
            </SimpleSetPredicate>
           </Node>
           <Node id="55" score="YES">
            <SimpleSetPredicate field="V9" booleanOperator="isIn">
             <Array n="1" type="string">&quot;t&quot;</Array>
            </SimpleSetPredicate>
           </Node>
          </Node>
          <Node id="35" score="NO">
           <SimplePredicate field="V15" operator="greaterThan" value="175"/>
          </Node>
         </Node>
         <Node id="19" score="NO">
          <SimplePredicate field="V2" operator="greaterThan" value="108"/>
         </Node>
        </Node>
       </Node>
       <Node id="5">
        <SimplePredicate field="V11" operator="greaterThan" value="0.5"/>
        <Node id="10">
         <SimplePredicate field="V3" operator="lessOrEqual" value="5.5"/>
         <Node id="20" score="NO">
          <SimpleSetPredicate field="V9" booleanOperator="isIn">
           <Array n="1" type="string">&quot;f&quot;</Array>
          </SimpleSetPredicate>
         </Node>
         <Node id="21" score="YES">
          <SimpleSetPredicate field="V9" booleanOperator="isIn">
           <Array n="1" type="string">&quot;t&quot;</Array>
          </SimpleSetPredicate>
         </Node>
        </Node>
        <Node id="11">
         <SimplePredicate field="V3" operator="greaterThan" value="5.5"/>
         <Node id="22" score="NO">
          <SimpleSetPredicate field="V9" booleanOperator="isIn">
           <Array n="1" type="string">&quot;f&quot;</Array>
          </SimpleSetPredicate>
         </Node>
         <Node id="23" score="YES">
          <SimpleSetPredicate field="V9" booleanOperator="isIn">
           <Array n="1" type="string">&quot;t&quot;</Array>
          </SimpleSetPredicate>
         </Node>
        </Node>
       </Node>
      </Node>
      <Node id="3">
       <SimplePredicate field="V14" operator="greaterThan" value="25.5"/>
       <Node id="6">
        <SimpleSetPredicate field="V6" booleanOperator="isIn">
         <Array n="7" type="string">&quot;?&quot;   &quot;c&quot;   &quot;cc&quot;   &quot;q&quot;   &quot;r&quot;   &quot;w&quot;   &quot;x&quot;</Array>
        </SimpleSetPredicate>
        <Node id="12">
         <SimpleSetPredicate field="V9" booleanOperator="isIn">
          <Array n="1" type="string">&quot;f&quot;</Array>
         </SimpleSetPredicate>
         <Node id="24">
          <SimplePredicate field="V3" operator="lessOrEqual" value="0.27"/>
          <Node id="36" score="NO">
           <SimplePredicate field="V8" operator="lessOrEqual" value="0.8325"/>
          </Node>
          <Node id="37" score="YES">
           <SimplePredicate field="V8" operator="greaterThan" value="0.8325"/>
          </Node>
         </Node>
         <Node id="25">
          <SimplePredicate field="V3" operator="greaterThan" value="0.27"/>
          <Node id="38">
           <SimplePredicate field="V2" operator="lessOrEqual" value="88.5"/>
           <Node id="56">
            <SimplePredicate field="V3" operator="lessOrEqual" value="0.7275"/>
            <Node id="72" score="YES">
             <SimplePredicate field="V14" operator="lessOrEqual" value="51"/>
            </Node>
            <Node id="73" score="NO">
             <SimplePredicate field="V14" operator="greaterThan" value="51"/>
            </Node>
           </Node>
           <Node id="57">
            <SimplePredicate field="V3" operator="greaterThan" value="0.7275"/>
            <Node id="74" score="YES">
             <SimpleSetPredicate field="V6" booleanOperator="isIn">
              <Array n="12" type="string">&quot;?&quot;   &quot;aa&quot;   &quot;cc&quot;   &quot;d&quot;   &quot;e&quot;   &quot;ff&quot;   &quot;i&quot;   &quot;j&quot;   &quot;k&quot;   &quot;m&quot;   &quot;r&quot;   &quot;x&quot;</Array>
             </SimpleSetPredicate>
            </Node>
            <Node id="75">
             <SimpleSetPredicate field="V6" booleanOperator="isIn">
              <Array n="3" type="string">&quot;c&quot;   &quot;q&quot;   &quot;w&quot;</Array>
             </SimpleSetPredicate>
             <Node id="86">
              <SimplePredicate field="V14" operator="lessOrEqual" value="43"/>
              <Node id="92" score="YES">
               <SimplePredicate field="V3" operator="lessOrEqual" value="5.415"/>
              </Node>
              <Node id="93" score="NO">
               <SimplePredicate field="V3" operator="greaterThan" value="5.415"/>
              </Node>
             </Node>
             <Node id="87" score="NO">
              <SimplePredicate field="V14" operator="greaterThan" value="43"/>
             </Node>
            </Node>
           </Node>
          </Node>
          <Node id="39" score="NO">
           <SimplePredicate field="V2" operator="greaterThan" value="88.5"/>
          </Node>
         </Node>
        </Node>
        <Node id="13">
         <SimpleSetPredicate field="V9" booleanOperator="isIn">
          <Array n="1" type="string">&quot;t&quot;</Array>
         </SimpleSetPredicate>
         <Node id="26">
          <SimplePredicate field="V3" operator="lessOrEqual" value="0.5625"/>
          <Node id="40" score="YES">
           <SimpleSetPredicate field="V6" booleanOperator="isIn">
            <Array n="13" type="string">&quot;?&quot;   &quot;aa&quot;   &quot;cc&quot;   &quot;d&quot;   &quot;e&quot;   &quot;ff&quot;   &quot;i&quot;   &quot;j&quot;   &quot;k&quot;   &quot;m&quot;   &quot;q&quot;   &quot;r&quot;   &quot;x&quot;</Array>
           </SimpleSetPredicate>
          </Node>
          <Node id="41">
           <SimpleSetPredicate field="V6" booleanOperator="isIn">
            <Array n="2" type="string">&quot;c&quot;   &quot;w&quot;</Array>
           </SimpleSetPredicate>
           <Node id="58" score="NO">
            <SimplePredicate field="V8" operator="lessOrEqual" value="2.9375"/>
           </Node>
           <Node id="59" score="YES">
            <SimplePredicate field="V8" operator="greaterThan" value="2.9375"/>
           </Node>
          </Node>
         </Node>
         <Node id="27">
          <SimplePredicate field="V3" operator="greaterThan" value="0.5625"/>
          <Node id="42">
           <SimplePredicate field="V8" operator="lessOrEqual" value="0.4175"/>
           <Node id="60">
            <SimplePredicate field="V14" operator="lessOrEqual" value="61.5"/>
            <Node id="76" score="YES">
             <SimplePredicate field="V8" operator="lessOrEqual" value="0.3325"/>
            </Node>
            <Node id="77" score="NO">
             <SimplePredicate field="V8" operator="greaterThan" value="0.3325"/>
            </Node>
           </Node>
           <Node id="61" score="YES">
            <SimplePredicate field="V14" operator="greaterThan" value="61.5"/>
           </Node>
          </Node>
          <Node id="43">
           <SimplePredicate field="V8" operator="greaterThan" value="0.4175"/>
           <Node id="62">
            <SimplePredicate field="V14" operator="lessOrEqual" value="139"/>
            <Node id="78">
             <SimplePredicate field="V2" operator="lessOrEqual" value="313"/>
             <Node id="88" score="YES">
              <SimpleSetPredicate field="V6" booleanOperator="isIn">
               <Array n="14" type="string">&quot;?&quot;   &quot;aa&quot;   &quot;c&quot;   &quot;cc&quot;   &quot;d&quot;   &quot;e&quot;   &quot;ff&quot;   &quot;i&quot;   &quot;j&quot;   &quot;k&quot;   &quot;m&quot;   &quot;r&quot;   &quot;w&quot;   &quot;x&quot;</Array>
              </SimpleSetPredicate>
             </Node>
             <Node id="89">
              <SimpleSetPredicate field="V6" booleanOperator="isIn">
               <Array n="1" type="string">&quot;q&quot;</Array>
              </SimpleSetPredicate>
              <Node id="94" score="NO">
               <SimplePredicate field="V8" operator="lessOrEqual" value="1.52"/>
              </Node>
              <Node id="95" score="YES">
               <SimplePredicate field="V8" operator="greaterThan" value="1.52"/>
              </Node>
             </Node>
            </Node>
            <Node id="79" score="NO">
             <SimplePredicate field="V2" operator="greaterThan" value="313"/>
            </Node>
           </Node>
           <Node id="63">
            <SimplePredicate field="V14" operator="greaterThan" value="139"/>
            <Node id="80" score="NO">
             <SimplePredicate field="V8" operator="lessOrEqual" value="2.4575"/>
            </Node>
            <Node id="81" score="YES">
             <SimplePredicate field="V8" operator="greaterThan" value="2.4575"/>
            </Node>
           </Node>
          </Node>
         </Node>
        </Node>
       </Node>
       <Node id="7">
        <SimpleSetPredicate field="V6" booleanOperator="isIn">
         <Array n="8" type="string">&quot;aa&quot;   &quot;d&quot;   &quot;e&quot;   &quot;ff&quot;   &quot;i&quot;   &quot;j&quot;   &quot;k&quot;   &quot;m&quot;</Array>
        </SimpleSetPredicate>
        <Node id="14">
         <SimplePredicate field="V3" operator="lessOrEqual" value="0.2075"/>
         <Node id="28">
          <SimplePredicate field="V15" operator="lessOrEqual" value="0.5"/>
          <Node id="44" score="YES">
           <SimpleSetPredicate field="V6" booleanOperator="isIn">
            <Array n="14" type="string">&quot;?&quot;   &quot;aa&quot;   &quot;c&quot;   &quot;cc&quot;   &quot;d&quot;   &quot;e&quot;   &quot;ff&quot;   &quot;i&quot;   &quot;k&quot;   &quot;m&quot;   &quot;q&quot;   &quot;r&quot;   &quot;w&quot;   &quot;x&quot;</Array>
           </SimpleSetPredicate>
          </Node>
          <Node id="45" score="NO">
           <SimpleSetPredicate field="V6" booleanOperator="isIn">
            <Array n="1" type="string">&quot;j&quot;</Array>
           </SimpleSetPredicate>
          </Node>
         </Node>
         <Node id="29" score="YES">
          <SimplePredicate field="V15" operator="greaterThan" value="0.5"/>
         </Node>
        </Node>
        <Node id="15">
         <SimplePredicate field="V3" operator="greaterThan" value="0.2075"/>
         <Node id="30">
          <SimplePredicate field="V11" operator="lessOrEqual" value="1.5"/>
          <Node id="46">
           <SimplePredicate field="V14" operator="lessOrEqual" value="84"/>
           <Node id="64">
            <SimplePredicate field="V14" operator="lessOrEqual" value="81.5"/>
            <Node id="82">
             <SimpleSetPredicate field="V6" booleanOperator="isIn">
              <Array n="8" type="string">&quot;?&quot;   &quot;aa&quot;   &quot;c&quot;   &quot;cc&quot;   &quot;q&quot;   &quot;r&quot;   &quot;w&quot;   &quot;x&quot;</Array>
             </SimpleSetPredicate>
             <Node id="90" score="NO">
              <SimplePredicate field="V3" operator="lessOrEqual" value="6.375"/>
             </Node>
             <Node id="91">
              <SimplePredicate field="V3" operator="greaterThan" value="6.375"/>
              <Node id="96" score="YES">
               <SimplePredicate field="V8" operator="lessOrEqual" value="2.9575"/>
              </Node>
              <Node id="97" score="NO">
               <SimplePredicate field="V8" operator="greaterThan" value="2.9575"/>
              </Node>
             </Node>
            </Node>
            <Node id="83" score="NO">
             <SimpleSetPredicate field="V6" booleanOperator="isIn">
              <Array n="7" type="string">&quot;d&quot;   &quot;e&quot;   &quot;ff&quot;   &quot;i&quot;   &quot;j&quot;   &quot;k&quot;   &quot;m&quot;</Array>
             </SimpleSetPredicate>
            </Node>
           </Node>
           <Node id="65" score="YES">
            <SimplePredicate field="V14" operator="greaterThan" value="81.5"/>
           </Node>
          </Node>
          <Node id="47" score="NO">
           <SimplePredicate field="V14" operator="greaterThan" value="84"/>
          </Node>
         </Node>
         <Node id="31">
          <SimplePredicate field="V11" operator="greaterThan" value="1.5"/>
          <Node id="48">
           <SimpleSetPredicate field="V6" booleanOperator="isIn">
            <Array n="13" type="string">&quot;?&quot;   &quot;aa&quot;   &quot;c&quot;   &quot;cc&quot;   &quot;d&quot;   &quot;e&quot;   &quot;i&quot;   &quot;j&quot;   &quot;m&quot;   &quot;q&quot;   &quot;r&quot;   &quot;w&quot;   &quot;x&quot;</Array>
           </SimpleSetPredicate>
           <Node id="66" score="NO">
            <SimplePredicate field="V8" operator="lessOrEqual" value="0.73"/>
           </Node>
           <Node id="67" score="YES">
            <SimplePredicate field="V8" operator="greaterThan" value="0.73"/>
           </Node>
          </Node>
          <Node id="49" score="NO">
           <SimpleSetPredicate field="V6" booleanOperator="isIn">
            <Array n="2" type="string">&quot;ff&quot;   &quot;k&quot;</Array>
           </SimpleSetPredicate>
          </Node>
         </Node>
        </Node>
       </Node>
      </Node>
     </Node>
    </TreeModel>
   </Segment>
   <Segment id="2">
    <True/>
    <TreeModel modelName="CreditAppPredictionRForest" functionName="classification" algorithmName="randomForest" splitCharacteristic="binarySplit">
     <MiningSchema>
      <MiningField name="V16" usageType="predicted" invalidValueTreatment="asIs"/>
      <MiningField name="V2" usageType="active" invalidValueTreatment="asIs"/>
      <MiningField name="V3" usageType="active" invalidValueTreatment="asIs"/>
      <MiningField name="V6" usageType="active" invalidValueTreatment="asIs"/>
      <MiningField name="V8" usageType="active" invalidValueTreatment="asIs"/>
      <MiningField name="V9" usageType="active" invalidValueTreatment="asIs"/>
      <MiningField name="V11" usageType="active" invalidValueTreatment="asIs"/>
      <MiningField name="V14" usageType="active" invalidValueTreatment="asIs"/>
      <MiningField name="V15" usageType="active" invalidValueTreatment="asIs"/>
     </MiningSchema>
     <Node id="1">
      <True/>
      <Node id="2">
       <SimplePredicate field="V8" operator="lessOrEqual" value="1.02"/>
       <Node id="4">
        <SimpleSetPredicate field="V9" booleanOperator="isIn">
         <Array n="1" type="string">&quot;f&quot;</Array>
        </SimpleSetPredicate>
        <Node id="8">
         <SimplePredicate field="V15" operator="lessOrEqual" value="52776"/>
         <Node id="16">
          <SimplePredicate field="V3" operator="lessOrEqual" value="0.0425"/>
          <Node id="28">
           <SimplePredicate field="V8" operator="lessOrEqual" value="0.5"/>
           <Node id="46">
            <SimplePredicate field="V2" operator="lessOrEqual" value="63.5"/>
            <Node id="64" score="YES">
             <SimpleSetPredicate field="V6" booleanOperator="isIn">
              <Array n="14" type="string">&quot;aa&quot;   &quot;c&quot;   &quot;cc&quot;   &quot;d&quot;   &quot;e&quot;   &quot;ff&quot;   &quot;i&quot;   &quot;j&quot;   &quot;k&quot;   &quot;m&quot;   &quot;q&quot;   &quot;r&quot;   &quot;w&quot;   &quot;x&quot;</Array>
             </SimpleSetPredicate>
            </Node>
            <Node id="65" score="NO">
             <SimpleSetPredicate field="V6" booleanOperator="isIn">
              <Array n="1" type="string">&quot;?&quot;</Array>
             </SimpleSetPredicate>
            </Node>
           </Node>
           <Node id="47" score="YES">
            <SimplePredicate field="V2" operator="greaterThan" value="63.5"/>
           </Node>
          </Node>
          <Node id="29" score="NO">
           <SimplePredicate field="V8" operator="greaterThan" value="0.5"/>
          </Node>
         </Node>
         <Node id="17">
          <SimplePredicate field="V3" operator="greaterThan" value="0.0425"/>
          <Node id="30">
           <SimplePredicate field="V3" operator="lessOrEqual" value="0.685"/>
           <Node id="48" score="NO">
            <SimplePredicate field="V8" operator="lessOrEqual" value="0.145"/>
           </Node>
           <Node id="49">
            <SimplePredicate field="V8" operator="greaterThan" value="0.145"/>
            <Node id="66">
             <SimplePredicate field="V8" operator="lessOrEqual" value="0.6875"/>
             <Node id="84">
              <SimplePredicate field="V8" operator="lessOrEqual" value="0.355"/>
              <Node id="96">
               <SimplePredicate field="V3" operator="lessOrEqual" value="0.6225"/>
               <Node id="100" score="YES">
                <SimplePredicate field="V2" operator="lessOrEqual" value="28"/>
               </Node>
               <Node id="101" score="NO">
                <SimplePredicate field="V2" operator="greaterThan" value="28"/>
               </Node>
              </Node>
              <Node id="97" score="YES">
               <SimplePredicate field="V3" operator="greaterThan" value="0.6225"/>
              </Node>
             </Node>
             <Node id="85" score="YES">
              <SimplePredicate field="V8" operator="greaterThan" value="0.355"/>
             </Node>
            </Node>
            <Node id="67" score="NO">
             <SimplePredicate field="V8" operator="greaterThan" value="0.6875"/>
            </Node>
           </Node>
          </Node>
          <Node id="31">
           <SimplePredicate field="V3" operator="greaterThan" value="0.685"/>
           <Node id="50">
            <SimplePredicate field="V14" operator="lessOrEqual" value="13.5"/>
            <Node id="68" score="YES">
             <SimpleSetPredicate field="V6" booleanOperator="isIn">
              <Array n="8" type="string">&quot;?&quot;   &quot;cc&quot;   &quot;j&quot;   &quot;k&quot;   &quot;m&quot;   &quot;q&quot;   &quot;r&quot;   &quot;x&quot;</Array>
             </SimpleSetPredicate>
            </Node>
            <Node id="69" score="NO">
             <SimpleSetPredicate field="V6" booleanOperator="isIn">
              <Array n="7" type="string">&quot;aa&quot;   &quot;c&quot;   &quot;d&quot;   &quot;e&quot;   &quot;ff&quot;   &quot;i&quot;   &quot;w&quot;</Array>
             </SimpleSetPredicate>
            </Node>
           </Node>
           <Node id="51" score="NO">
            <SimplePredicate field="V14" operator="greaterThan" value="13.5"/>
           </Node>
          </Node>
         </Node>
        </Node>
        <Node id="9" score="YES">
         <SimplePredicate field="V15" operator="greaterThan" value="52776"/>
        </Node>
       </Node>
       <Node id="5">
        <SimpleSetPredicate field="V9" booleanOperator="isIn">
         <Array n="1" type="string">&quot;t&quot;</Array>
        </SimpleSetPredicate>
        <Node id="10">
         <SimpleSetPredicate field="V6" booleanOperator="isIn">
          <Array n="13" type="string">&quot;?&quot;   &quot;c&quot;   &quot;cc&quot;   &quot;d&quot;   &quot;e&quot;   &quot;ff&quot;   &quot;i&quot;   &quot;j&quot;   &quot;k&quot;   &quot;q&quot;   &quot;r&quot;   &quot;w&quot;   &quot;x&quot;</Array>
         </SimpleSetPredicate>
         <Node id="18">
          <SimplePredicate field="V2" operator="lessOrEqual" value="134"/>
          <Node id="32" score="YES">
           <SimplePredicate field="V3" operator="lessOrEqual" value="4.395"/>
          </Node>
          <Node id="33">
           <SimplePredicate field="V3" operator="greaterThan" value="4.395"/>
           <Node id="52" score="YES">
            <SimplePredicate field="V14" operator="lessOrEqual" value="43"/>
           </Node>
           <Node id="53">
            <SimplePredicate field="V14" operator="greaterThan" value="43"/>
            <Node id="70" score="NO">
             <SimplePredicate field="V14" operator="lessOrEqual" value="78"/>
            </Node>
            <Node id="71" score="YES">
             <SimplePredicate field="V14" operator="greaterThan" value="78"/>
            </Node>
           </Node>
          </Node>
         </Node>
         <Node id="19">
          <SimplePredicate field="V2" operator="greaterThan" value="134"/>
          <Node id="34">
           <SimplePredicate field="V15" operator="lessOrEqual" value="250"/>
           <Node id="54">
            <SimpleSetPredicate field="V6" booleanOperator="isIn">
             <Array n="9" type="string">&quot;?&quot;   &quot;aa&quot;   &quot;cc&quot;   &quot;d&quot;   &quot;j&quot;   &quot;k&quot;   &quot;m&quot;   &quot;r&quot;   &quot;x&quot;</Array>
            </SimpleSetPredicate>
            <Node id="72" score="NO">
             <SimplePredicate field="V14" operator="lessOrEqual" value="86.5"/>
            </Node>
            <Node id="73">
             <SimplePredicate field="V14" operator="greaterThan" value="86.5"/>
             <Node id="86" score="YES">
              <SimplePredicate field="V11" operator="lessOrEqual" value="2.5"/>
             </Node>
             <Node id="87" score="YES">
              <SimplePredicate field="V11" operator="greaterThan" value="2.5"/>
             </Node>
            </Node>
           </Node>
           <Node id="55">
            <SimpleSetPredicate field="V6" booleanOperator="isIn">
             <Array n="6" type="string">&quot;c&quot;   &quot;e&quot;   &quot;ff&quot;   &quot;i&quot;   &quot;q&quot;   &quot;w&quot;</Array>
            </SimpleSetPredicate>
            <Node id="74">
             <SimplePredicate field="V8" operator="lessOrEqual" value="0.1675"/>
             <Node id="88">
              <SimplePredicate field="V2" operator="lessOrEqual" value="267"/>
              <Node id="98" score="YES">
               <SimpleSetPredicate field="V6" booleanOperator="isIn">
                <Array n="14" type="string">&quot;?&quot;   &quot;aa&quot;   &quot;c&quot;   &quot;cc&quot;   &quot;d&quot;   &quot;e&quot;   &quot;i&quot;   &quot;j&quot;   &quot;k&quot;   &quot;m&quot;   &quot;q&quot;   &quot;r&quot;   &quot;w&quot;   &quot;x&quot;</Array>
               </SimpleSetPredicate>
              </Node>
              <Node id="99" score="NO">
               <SimpleSetPredicate field="V6" booleanOperator="isIn">
                <Array n="1" type="string">&quot;ff&quot;</Array>
               </SimpleSetPredicate>
              </Node>
             </Node>
             <Node id="89" score="NO">
              <SimplePredicate field="V2" operator="greaterThan" value="267"/>
             </Node>
            </Node>
            <Node id="75" score="NO">
             <SimplePredicate field="V8" operator="greaterThan" value="0.1675"/>
            </Node>
           </Node>
          </Node>
          <Node id="35" score="YES">
           <SimplePredicate field="V15" operator="greaterThan" value="250"/>
          </Node>
         </Node>
        </Node>
        <Node id="11">
         <SimpleSetPredicate field="V6" booleanOperator="isIn">
          <Array n="2" type="string">&quot;aa&quot;   &quot;m&quot;</Array>
         </SimpleSetPredicate>
         <Node id="20" score="YES">
          <SimplePredicate field="V14" operator="lessOrEqual" value="43.5"/>
         </Node>
         <Node id="21" score="NO">
          <SimplePredicate field="V14" operator="greaterThan" value="43.5"/>
         </Node>
        </Node>
       </Node>
      </Node>
      <Node id="3">
       <SimplePredicate field="V8" operator="greaterThan" value="1.02"/>
       <Node id="6">
        <SimplePredicate field="V11" operator="lessOrEqual" value="0.5"/>
        <Node id="12">
         <SimpleSetPredicate field="V9" booleanOperator="isIn">
          <Array n="1" type="string">&quot;f&quot;</Array>
         </SimpleSetPredicate>
         <Node id="22">
          <SimplePredicate field="V3" operator="lessOrEqual" value="0.8325"/>
          <Node id="36" score="NO">
           <SimplePredicate field="V3" operator="lessOrEqual" value="0.1025"/>
          </Node>
          <Node id="37" score="YES">
           <SimplePredicate field="V3" operator="greaterThan" value="0.1025"/>
          </Node>
         </Node>
         <Node id="23">
          <SimplePredicate field="V3" operator="greaterThan" value="0.8325"/>
          <Node id="38" score="NO">
           <SimplePredicate field="V8" operator="lessOrEqual" value="2.355"/>
          </Node>
          <Node id="39">
           <SimplePredicate field="V8" operator="greaterThan" value="2.355"/>
           <Node id="56" score="YES">
            <SimpleSetPredicate field="V6" booleanOperator="isIn">
             <Array n="8" type="string">&quot;?&quot;   &quot;aa&quot;   &quot;e&quot;   &quot;ff&quot;   &quot;j&quot;   &quot;q&quot;   &quot;r&quot;   &quot;x&quot;</Array>
            </SimpleSetPredicate>
           </Node>
           <Node id="57">
            <SimpleSetPredicate field="V6" booleanOperator="isIn">
             <Array n="7" type="string">&quot;c&quot;   &quot;cc&quot;   &quot;d&quot;   &quot;i&quot;   &quot;k&quot;   &quot;m&quot;   &quot;w&quot;</Array>
            </SimpleSetPredicate>
            <Node id="76">
             <SimplePredicate field="V3" operator="lessOrEqual" value="1.895"/>
             <Node id="90" score="YES">
              <SimplePredicate field="V2" operator="lessOrEqual" value="277.5"/>
             </Node>
             <Node id="91" score="NO">
              <SimplePredicate field="V2" operator="greaterThan" value="277.5"/>
             </Node>
            </Node>
            <Node id="77" score="NO">
             <SimplePredicate field="V3" operator="greaterThan" value="1.895"/>
            </Node>
           </Node>
          </Node>
         </Node>
        </Node>
        <Node id="13">
         <SimpleSetPredicate field="V9" booleanOperator="isIn">
          <Array n="1" type="string">&quot;t&quot;</Array>
         </SimpleSetPredicate>
         <Node id="24">
          <SimplePredicate field="V14" operator="lessOrEqual" value="114.5"/>
          <Node id="40">
           <SimplePredicate field="V2" operator="lessOrEqual" value="260.5"/>
           <Node id="58">
            <SimplePredicate field="V8" operator="lessOrEqual" value="4.75"/>
            <Node id="78" score="YES">
             <SimplePredicate field="V3" operator="lessOrEqual" value="1.3125"/>
            </Node>
            <Node id="79">
             <SimplePredicate field="V3" operator="greaterThan" value="1.3125"/>
             <Node id="92" score="YES">
              <SimpleSetPredicate field="V6" booleanOperator="isIn">
               <Array n="12" type="string">&quot;?&quot;   &quot;c&quot;   &quot;e&quot;   &quot;ff&quot;   &quot;i&quot;   &quot;j&quot;   &quot;k&quot;   &quot;m&quot;   &quot;q&quot;   &quot;r&quot;   &quot;w&quot;   &quot;x&quot;</Array>
              </SimpleSetPredicate>
             </Node>
             <Node id="93" score="NO">
              <SimpleSetPredicate field="V6" booleanOperator="isIn">
               <Array n="3" type="string">&quot;aa&quot;   &quot;cc&quot;   &quot;d&quot;</Array>
              </SimpleSetPredicate>
             </Node>
            </Node>
           </Node>
           <Node id="59">
            <SimplePredicate field="V8" operator="greaterThan" value="4.75"/>
            <Node id="80" score="YES">
             <SimpleSetPredicate field="V6" booleanOperator="isIn">
              <Array n="14" type="string">&quot;?&quot;   &quot;aa&quot;   &quot;c&quot;   &quot;cc&quot;   &quot;e&quot;   &quot;ff&quot;   &quot;i&quot;   &quot;j&quot;   &quot;k&quot;   &quot;m&quot;   &quot;q&quot;   &quot;r&quot;   &quot;w&quot;   &quot;x&quot;</Array>
             </SimpleSetPredicate>
            </Node>
            <Node id="81" score="NO">
             <SimpleSetPredicate field="V6" booleanOperator="isIn">
              <Array n="1" type="string">&quot;d&quot;</Array>
             </SimpleSetPredicate>
            </Node>
           </Node>
          </Node>
          <Node id="41">
           <SimplePredicate field="V2" operator="greaterThan" value="260.5"/>
           <Node id="60" score="NO">
            <SimplePredicate field="V3" operator="lessOrEqual" value="12.2925"/>
           </Node>
           <Node id="61" score="YES">
            <SimplePredicate field="V3" operator="greaterThan" value="12.2925"/>
           </Node>
          </Node>
         </Node>
         <Node id="25">
          <SimplePredicate field="V14" operator="greaterThan" value="114.5"/>
          <Node id="42" score="YES">
           <SimpleSetPredicate field="V6" booleanOperator="isIn">
            <Array n="13" type="string">&quot;?&quot;   &quot;aa&quot;   &quot;c&quot;   &quot;cc&quot;   &quot;d&quot;   &quot;e&quot;   &quot;ff&quot;   &quot;i&quot;   &quot;j&quot;   &quot;k&quot;   &quot;r&quot;   &quot;w&quot;   &quot;x&quot;</Array>
           </SimpleSetPredicate>
          </Node>
          <Node id="43" score="NO">
           <SimpleSetPredicate field="V6" booleanOperator="isIn">
            <Array n="2" type="string">&quot;m&quot;   &quot;q&quot;</Array>
           </SimpleSetPredicate>
          </Node>
         </Node>
        </Node>
       </Node>
       <Node id="7">
        <SimplePredicate field="V11" operator="greaterThan" value="0.5"/>
        <Node id="14" score="NO">
         <SimpleSetPredicate field="V9" booleanOperator="isIn">
          <Array n="1" type="string">&quot;f&quot;</Array>
         </SimpleSetPredicate>
        </Node>
        <Node id="15">
         <SimpleSetPredicate field="V9" booleanOperator="isIn">
          <Array n="1" type="string">&quot;t&quot;</Array>
         </SimpleSetPredicate>
         <Node id="26">
          <SimpleSetPredicate field="V6" booleanOperator="isIn">
           <Array n="14" type="string">&quot;?&quot;   &quot;aa&quot;   &quot;c&quot;   &quot;cc&quot;   &quot;d&quot;   &quot;e&quot;   &quot;ff&quot;   &quot;i&quot;   &quot;j&quot;   &quot;m&quot;   &quot;q&quot;   &quot;r&quot;   &quot;w&quot;   &quot;x&quot;</Array>
          </SimpleSetPredicate>
          <Node id="44" score="YES">
           <SimplePredicate field="V14" operator="lessOrEqual" value="67"/>
          </Node>
          <Node id="45">
           <SimplePredicate field="V14" operator="greaterThan" value="67"/>
           <Node id="62">
            <SimplePredicate field="V3" operator="lessOrEqual" value="3.625"/>
            <Node id="82">
             <SimplePredicate field="V3" operator="lessOrEqual" value="3.3325"/>
             <Node id="94" score="NO">
              <SimplePredicate field="V8" operator="lessOrEqual" value="1.375"/>
             </Node>
             <Node id="95" score="YES">
              <SimplePredicate field="V8" operator="greaterThan" value="1.375"/>
             </Node>
            </Node>
            <Node id="83" score="NO">
             <SimplePredicate field="V3" operator="greaterThan" value="3.3325"/>
            </Node>
           </Node>
           <Node id="63" score="YES">
            <SimplePredicate field="V3" operator="greaterThan" value="3.625"/>
           </Node>
          </Node>
         </Node>
         <Node id="27" score="NO">
          <SimpleSetPredicate field="V6" booleanOperator="isIn">
           <Array n="1" type="string">&quot;k&quot;</Array>
          </SimpleSetPredicate>
         </Node>
        </Node>
       </Node>
      </Node>
     </Node>
    </TreeModel>
   </Segment>
   <Segment id="3">
    <True/>
    <TreeModel modelName="CreditAppPredictionRForest" functionName="classification" algorithmName="randomForest" splitCharacteristic="binarySplit">
     <MiningSchema>
      <MiningField name="V16" usageType="predicted" invalidValueTreatment="asIs"/>
      <MiningField name="V2" usageType="active" invalidValueTreatment="asIs"/>
      <MiningField name="V3" usageType="active" invalidValueTreatment="asIs"/>
      <MiningField name="V6" usageType="active" invalidValueTreatment="asIs"/>
      <MiningField name="V8" usageType="active" invalidValueTreatment="asIs"/>
      <MiningField name="V9" usageType="active" invalidValueTreatment="asIs"/>
      <MiningField name="V11" usageType="active" invalidValueTreatment="asIs"/>
      <MiningField name="V14" usageType="active" invalidValueTreatment="asIs"/>
      <MiningField name="V15" usageType="active" invalidValueTreatment="asIs"/>
     </MiningSchema>
     <Node id="1">
      <True/>
      <Node id="2">
       <SimpleSetPredicate field="V6" booleanOperator="isIn">
        <Array n="7" type="string">&quot;aa&quot;   &quot;c&quot;   &quot;cc&quot;   &quot;e&quot;   &quot;q&quot;   &quot;r&quot;   &quot;x&quot;</Array>
       </SimpleSetPredicate>
       <Node id="4">
        <SimplePredicate field="V3" operator="lessOrEqual" value="3.375"/>
        <Node id="8">
         <SimpleSetPredicate field="V9" booleanOperator="isIn">
          <Array n="1" type="string">&quot;f&quot;</Array>
         </SimpleSetPredicate>
         <Node id="16">
          <SimplePredicate field="V3" operator="lessOrEqual" value="0.395"/>
          <Node id="32" score="YES">
           <SimplePredicate field="V14" operator="lessOrEqual" value="10.5"/>
          </Node>
          <Node id="33">
           <SimplePredicate field="V14" operator="greaterThan" value="10.5"/>
           <Node id="58">
            <SimplePredicate field="V3" operator="lessOrEqual" value="0.3325"/>
            <Node id="86" score="NO">
             <SimplePredicate field="V14" operator="lessOrEqual" value="141.5"/>
            </Node>
            <Node id="87" score="YES">
             <SimplePredicate field="V14" operator="greaterThan" value="141.5"/>
            </Node>
           </Node>
           <Node id="59" score="YES">
            <SimplePredicate field="V3" operator="greaterThan" value="0.3325"/>
           </Node>
          </Node>
         </Node>
         <Node id="17">
          <SimplePredicate field="V3" operator="greaterThan" value="0.395"/>
          <Node id="34">
           <SimplePredicate field="V3" operator="lessOrEqual" value="0.685"/>
           <Node id="60" score="YES">
            <SimplePredicate field="V14" operator="lessOrEqual" value="37"/>
           </Node>
           <Node id="61" score="NO">
            <SimplePredicate field="V14" operator="greaterThan" value="37"/>
           </Node>
          </Node>
          <Node id="35" score="NO">
           <SimplePredicate field="V3" operator="greaterThan" value="0.685"/>
          </Node>
         </Node>
        </Node>
        <Node id="9">
         <SimpleSetPredicate field="V9" booleanOperator="isIn">
          <Array n="1" type="string">&quot;t&quot;</Array>
         </SimpleSetPredicate>
         <Node id="18">
          <SimplePredicate field="V15" operator="lessOrEqual" value="450"/>
          <Node id="36">
           <SimplePredicate field="V14" operator="lessOrEqual" value="71.5"/>
           <Node id="62" score="YES">
            <SimplePredicate field="V14" operator="lessOrEqual" value="39.5"/>
           </Node>
           <Node id="63" score="NO">
            <SimplePredicate field="V14" operator="greaterThan" value="39.5"/>
           </Node>
          </Node>
          <Node id="37" score="YES">
           <SimplePredicate field="V14" operator="greaterThan" value="71.5"/>
          </Node>
         </Node>
         <Node id="19" score="YES">
          <SimplePredicate field="V15" operator="greaterThan" value="450"/>
         </Node>
        </Node>
       </Node>
       <Node id="5">
        <SimplePredicate field="V3" operator="greaterThan" value="3.375"/>
        <Node id="10">
         <SimplePredicate field="V11" operator="lessOrEqual" value="2.5"/>
         <Node id="20">
          <SimplePredicate field="V3" operator="lessOrEqual" value="9.5625"/>
          <Node id="38" score="NO">
           <SimplePredicate field="V2" operator="lessOrEqual" value="11"/>
          </Node>
          <Node id="39">
           <SimplePredicate field="V2" operator="greaterThan" value="11"/>
           <Node id="64">
            <SimplePredicate field="V14" operator="lessOrEqual" value="67.5"/>
            <Node id="88">
             <SimplePredicate field="V8" operator="lessOrEqual" value="1.1875"/>
             <Node id="106" score="YES">
              <SimplePredicate field="V2" operator="lessOrEqual" value="41.5"/>
             </Node>
             <Node id="107" score="NO">
              <SimplePredicate field="V2" operator="greaterThan" value="41.5"/>
             </Node>
            </Node>
            <Node id="89" score="YES">
             <SimplePredicate field="V8" operator="greaterThan" value="1.1875"/>
            </Node>
           </Node>
           <Node id="65" score="YES">
            <SimplePredicate field="V14" operator="greaterThan" value="67.5"/>
           </Node>
          </Node>
         </Node>
         <Node id="21">
          <SimplePredicate field="V3" operator="greaterThan" value="9.5625"/>
          <Node id="40">
           <SimplePredicate field="V15" operator="lessOrEqual" value="450.5"/>
           <Node id="66">
            <SimplePredicate field="V11" operator="lessOrEqual" value="0.5"/>
            <Node id="90" score="NO">
             <SimpleSetPredicate field="V9" booleanOperator="isIn">
              <Array n="1" type="string">&quot;f&quot;</Array>
             </SimpleSetPredicate>
            </Node>
            <Node id="91">
             <SimpleSetPredicate field="V9" booleanOperator="isIn">
              <Array n="1" type="string">&quot;t&quot;</Array>
             </SimpleSetPredicate>
             <Node id="108" score="YES">
              <SimplePredicate field="V8" operator="lessOrEqual" value="2.1675"/>
             </Node>
             <Node id="109" score="NO">
              <SimplePredicate field="V8" operator="greaterThan" value="2.1675"/>
             </Node>
            </Node>
           </Node>
           <Node id="67">
            <SimplePredicate field="V11" operator="greaterThan" value="0.5"/>
            <Node id="92" score="YES">
             <SimpleSetPredicate field="V6" booleanOperator="isIn">
              <Array n="13" type="string">&quot;?&quot;   &quot;aa&quot;   &quot;cc&quot;   &quot;d&quot;   &quot;e&quot;   &quot;ff&quot;   &quot;i&quot;   &quot;j&quot;   &quot;k&quot;   &quot;m&quot;   &quot;r&quot;   &quot;w&quot;   &quot;x&quot;</Array>
             </SimpleSetPredicate>
            </Node>
            <Node id="93">
             <SimpleSetPredicate field="V6" booleanOperator="isIn">
              <Array n="2" type="string">&quot;c&quot;   &quot;q&quot;</Array>
             </SimpleSetPredicate>
             <Node id="110">
              <SimplePredicate field="V14" operator="lessOrEqual" value="121.5"/>
              <Node id="116" score="NO">
               <SimplePredicate field="V8" operator="lessOrEqual" value="0.6475"/>
              </Node>
              <Node id="117" score="YES">
               <SimplePredicate field="V8" operator="greaterThan" value="0.6475"/>
              </Node>
             </Node>
             <Node id="111" score="NO">
              <SimplePredicate field="V14" operator="greaterThan" value="121.5"/>
             </Node>
            </Node>
           </Node>
          </Node>
          <Node id="41">
           <SimplePredicate field="V15" operator="greaterThan" value="450.5"/>
           <Node id="68" score="YES">
            <SimplePredicate field="V2" operator="lessOrEqual" value="78.5"/>
           </Node>
           <Node id="69">
            <SimplePredicate field="V2" operator="greaterThan" value="78.5"/>
            <Node id="94">
             <SimplePredicate field="V11" operator="lessOrEqual" value="1"/>
             <Node id="112" score="NO">
              <SimplePredicate field="V2" operator="lessOrEqual" value="120.5"/>
             </Node>
             <Node id="113" score="YES">
              <SimplePredicate field="V2" operator="greaterThan" value="120.5"/>
             </Node>
            </Node>
            <Node id="95" score="NO">
             <SimplePredicate field="V11" operator="greaterThan" value="1"/>
            </Node>
           </Node>
          </Node>
         </Node>
        </Node>
        <Node id="11">
         <SimplePredicate field="V11" operator="greaterThan" value="2.5"/>
         <Node id="22" score="YES">
          <SimplePredicate field="V14" operator="lessOrEqual" value="45"/>
         </Node>
         <Node id="23">
          <SimplePredicate field="V14" operator="greaterThan" value="45"/>
          <Node id="42" score="NO">
           <SimplePredicate field="V8" operator="lessOrEqual" value="0.8125"/>
          </Node>
          <Node id="43" score="YES">
           <SimplePredicate field="V8" operator="greaterThan" value="0.8125"/>
          </Node>
         </Node>
        </Node>
       </Node>
      </Node>
      <Node id="3">
       <SimpleSetPredicate field="V6" booleanOperator="isIn">
        <Array n="8" type="string">&quot;?&quot;   &quot;d&quot;   &quot;ff&quot;   &quot;i&quot;   &quot;j&quot;   &quot;k&quot;   &quot;m&quot;   &quot;w&quot;</Array>
       </SimpleSetPredicate>
       <Node id="6">
        <SimplePredicate field="V14" operator="lessOrEqual" value="25.5"/>
        <Node id="12">
         <SimplePredicate field="V3" operator="lessOrEqual" value="2.0625"/>
         <Node id="24">
          <SimplePredicate field="V8" operator="lessOrEqual" value="0.6025"/>
          <Node id="44" score="NO">
           <SimplePredicate field="V14" operator="lessOrEqual" value="1.5"/>
          </Node>
          <Node id="45" score="NO">
           <SimplePredicate field="V14" operator="greaterThan" value="1.5"/>
          </Node>
         </Node>
         <Node id="25">
          <SimplePredicate field="V8" operator="greaterThan" value="0.6025"/>
          <Node id="46">
           <SimplePredicate field="V2" operator="lessOrEqual" value="294.5"/>
           <Node id="70" score="YES">
            <SimplePredicate field="V2" operator="lessOrEqual" value="89.5"/>
           </Node>
           <Node id="71">
            <SimplePredicate field="V2" operator="greaterThan" value="89.5"/>
            <Node id="96" score="NO">
             <SimplePredicate field="V15" operator="lessOrEqual" value="7.5"/>
            </Node>
            <Node id="97" score="YES">
             <SimplePredicate field="V15" operator="greaterThan" value="7.5"/>
            </Node>
           </Node>
          </Node>
          <Node id="47" score="NO">
           <SimplePredicate field="V2" operator="greaterThan" value="294.5"/>
          </Node>
         </Node>
        </Node>
        <Node id="13">
         <SimplePredicate field="V3" operator="greaterThan" value="2.0625"/>
         <Node id="26">
          <SimplePredicate field="V15" operator="lessOrEqual" value="223.5"/>
          <Node id="48" score="NO">
           <SimplePredicate field="V14" operator="lessOrEqual" value="12"/>
          </Node>
          <Node id="49">
           <SimplePredicate field="V14" operator="greaterThan" value="12"/>
           <Node id="72" score="NO">
            <SimpleSetPredicate field="V9" booleanOperator="isIn">
             <Array n="1" type="string">&quot;f&quot;</Array>
            </SimpleSetPredicate>
           </Node>
           <Node id="73" score="YES">
            <SimpleSetPredicate field="V9" booleanOperator="isIn">
             <Array n="1" type="string">&quot;t&quot;</Array>
            </SimpleSetPredicate>
           </Node>
          </Node>
         </Node>
         <Node id="27">
          <SimplePredicate field="V15" operator="greaterThan" value="223.5"/>
          <Node id="50">
           <SimpleSetPredicate field="V9" booleanOperator="isIn">
            <Array n="1" type="string">&quot;f&quot;</Array>
           </SimpleSetPredicate>
           <Node id="74">
            <SimplePredicate field="V11" operator="lessOrEqual" value="1"/>
            <Node id="98" score="YES">
             <SimplePredicate field="V15" operator="lessOrEqual" value="3945"/>
            </Node>
            <Node id="99" score="NO">
             <SimplePredicate field="V15" operator="greaterThan" value="3945"/>
            </Node>
           </Node>
           <Node id="75" score="NO">
            <SimplePredicate field="V11" operator="greaterThan" value="1"/>
           </Node>
          </Node>
          <Node id="51" score="YES">
           <SimpleSetPredicate field="V9" booleanOperator="isIn">
            <Array n="1" type="string">&quot;t&quot;</Array>
           </SimpleSetPredicate>
          </Node>
         </Node>
        </Node>
       </Node>
       <Node id="7">
        <SimplePredicate field="V14" operator="greaterThan" value="25.5"/>
        <Node id="14">
         <SimplePredicate field="V15" operator="lessOrEqual" value="2044.5"/>
         <Node id="28">
          <SimpleSetPredicate field="V9" booleanOperator="isIn">
           <Array n="1" type="string">&quot;f&quot;</Array>
          </SimpleSetPredicate>
          <Node id="52">
           <SimplePredicate field="V3" operator="lessOrEqual" value="0.145"/>
           <Node id="76" score="NO">
            <SimplePredicate field="V14" operator="lessOrEqual" value="89"/>
           </Node>
           <Node id="77" score="YES">
            <SimplePredicate field="V14" operator="greaterThan" value="89"/>
           </Node>
          </Node>
          <Node id="53">
           <SimplePredicate field="V3" operator="greaterThan" value="0.145"/>
           <Node id="78" score="NO">
            <SimpleSetPredicate field="V6" booleanOperator="isIn">
             <Array n="9" type="string">&quot;?&quot;   &quot;aa&quot;   &quot;c&quot;   &quot;cc&quot;   &quot;e&quot;   &quot;i&quot;   &quot;q&quot;   &quot;r&quot;   &quot;x&quot;</Array>
            </SimpleSetPredicate>
           </Node>
           <Node id="79" score="NO">
            <SimpleSetPredicate field="V6" booleanOperator="isIn">
             <Array n="6" type="string">&quot;d&quot;   &quot;ff&quot;   &quot;j&quot;   &quot;k&quot;   &quot;m&quot;   &quot;w&quot;</Array>
            </SimpleSetPredicate>
           </Node>
          </Node>
         </Node>
         <Node id="29">
          <SimpleSetPredicate field="V9" booleanOperator="isIn">
           <Array n="1" type="string">&quot;t&quot;</Array>
          </SimpleSetPredicate>
          <Node id="54">
           <SimplePredicate field="V11" operator="lessOrEqual" value="1"/>
           <Node id="80">
            <SimplePredicate field="V14" operator="lessOrEqual" value="140.5"/>
            <Node id="100" score="NO">
             <SimplePredicate field="V8" operator="lessOrEqual" value="3.5625"/>
            </Node>
            <Node id="101">
             <SimplePredicate field="V8" operator="greaterThan" value="3.5625"/>
             <Node id="114" score="YES">
              <SimplePredicate field="V14" operator="lessOrEqual" value="91.5"/>
             </Node>
             <Node id="115">
              <SimplePredicate field="V14" operator="greaterThan" value="91.5"/>
              <Node id="118" score="YES">
               <SimplePredicate field="V3" operator="lessOrEqual" value="0.3525"/>
              </Node>
              <Node id="119" score="NO">
               <SimplePredicate field="V3" operator="greaterThan" value="0.3525"/>
              </Node>
             </Node>
            </Node>
           </Node>
           <Node id="81" score="YES">
            <SimplePredicate field="V14" operator="greaterThan" value="140.5"/>
           </Node>
          </Node>
          <Node id="55">
           <SimplePredicate field="V11" operator="greaterThan" value="1"/>
           <Node id="82">
            <SimplePredicate field="V3" operator="lessOrEqual" value="3.75"/>
            <Node id="102" score="NO">
             <SimplePredicate field="V8" operator="lessOrEqual" value="3.875"/>
            </Node>
            <Node id="103" score="YES">
             <SimplePredicate field="V8" operator="greaterThan" value="3.875"/>
            </Node>
           </Node>
           <Node id="83">
            <SimplePredicate field="V3" operator="greaterThan" value="3.75"/>
            <Node id="104" score="YES">
             <SimplePredicate field="V2" operator="lessOrEqual" value="300.5"/>
            </Node>
            <Node id="105" score="NO">
             <SimplePredicate field="V2" operator="greaterThan" value="300.5"/>
            </Node>
           </Node>
          </Node>
         </Node>
        </Node>
        <Node id="15">
         <SimplePredicate field="V15" operator="greaterThan" value="2044.5"/>
         <Node id="30">
          <SimplePredicate field="V14" operator="lessOrEqual" value="115.5"/>
          <Node id="56" score="NO">
           <SimplePredicate field="V2" operator="lessOrEqual" value="124.5"/>
          </Node>
          <Node id="57">
           <SimplePredicate field="V2" operator="greaterThan" value="124.5"/>
           <Node id="84" score="YES">
            <SimplePredicate field="V2" operator="lessOrEqual" value="189"/>
           </Node>
           <Node id="85" score="NO">
            <SimplePredicate field="V2" operator="greaterThan" value="189"/>
           </Node>
          </Node>
         </Node>
         <Node id="31" score="YES">
          <SimplePredicate field="V14" operator="greaterThan" value="115.5"/>
         </Node>
        </Node>
       </Node>
      </Node>
     </Node>
    </TreeModel>
   </Segment>
   <Segment id="4">
    <True/>
    <TreeModel modelName="CreditAppPredictionRForest" functionName="classification" algorithmName="randomForest" splitCharacteristic="binarySplit">
     <MiningSchema>
      <MiningField name="V16" usageType="predicted" invalidValueTreatment="asIs"/>
      <MiningField name="V2" usageType="active" invalidValueTreatment="asIs"/>
      <MiningField name="V3" usageType="active" invalidValueTreatment="asIs"/>
      <MiningField name="V6" usageType="active" invalidValueTreatment="asIs"/>
      <MiningField name="V8" usageType="active" invalidValueTreatment="asIs"/>
      <MiningField name="V9" usageType="active" invalidValueTreatment="asIs"/>
      <MiningField name="V11" usageType="active" invalidValueTreatment="asIs"/>
      <MiningField name="V14" usageType="active" invalidValueTreatment="asIs"/>
      <MiningField name="V15" usageType="active" invalidValueTreatment="asIs"/>
     </MiningSchema>
     <Node id="1">
      <True/>
      <Node id="2">
       <SimplePredicate field="V3" operator="lessOrEqual" value="13.25"/>
       <Node id="4">
        <SimplePredicate field="V8" operator="lessOrEqual" value="0.6875"/>
        <Node id="8">
         <SimplePredicate field="V3" operator="lessOrEqual" value="0.5825"/>
         <Node id="14">
          <SimpleSetPredicate field="V9" booleanOperator="isIn">
           <Array n="1" type="string">&quot;f&quot;</Array>
          </SimpleSetPredicate>
          <Node id="26">
           <SimplePredicate field="V2" operator="lessOrEqual" value="226"/>
           <Node id="40" score="NO">
            <SimplePredicate field="V14" operator="lessOrEqual" value="100"/>
           </Node>
           <Node id="41">
            <SimplePredicate field="V14" operator="greaterThan" value="100"/>
            <Node id="62" score="YES">
             <SimpleSetPredicate field="V6" booleanOperator="isIn">
              <Array n="13" type="string">&quot;?&quot;   &quot;aa&quot;   &quot;c&quot;   &quot;cc&quot;   &quot;d&quot;   &quot;e&quot;   &quot;ff&quot;   &quot;i&quot;   &quot;j&quot;   &quot;k&quot;   &quot;m&quot;   &quot;r&quot;   &quot;x&quot;</Array>
             </SimpleSetPredicate>
            </Node>
            <Node id="63" score="NO">
             <SimpleSetPredicate field="V6" booleanOperator="isIn">
              <Array n="2" type="string">&quot;q&quot;   &quot;w&quot;</Array>
             </SimpleSetPredicate>
            </Node>
           </Node>
          </Node>
          <Node id="27" score="YES">
           <SimplePredicate field="V2" operator="greaterThan" value="226"/>
          </Node>
         </Node>
         <Node id="15">
          <SimpleSetPredicate field="V9" booleanOperator="isIn">
           <Array n="1" type="string">&quot;t&quot;</Array>
          </SimpleSetPredicate>
          <Node id="28" score="YES">
           <SimpleSetPredicate field="V6" booleanOperator="isIn">
            <Array n="14" type="string">&quot;?&quot;   &quot;aa&quot;   &quot;cc&quot;   &quot;d&quot;   &quot;e&quot;   &quot;ff&quot;   &quot;i&quot;   &quot;j&quot;   &quot;k&quot;   &quot;m&quot;   &quot;q&quot;   &quot;r&quot;   &quot;w&quot;   &quot;x&quot;</Array>
           </SimpleSetPredicate>
          </Node>
          <Node id="29">
           <SimpleSetPredicate field="V6" booleanOperator="isIn">
            <Array n="1" type="string">&quot;c&quot;</Array>
           </SimpleSetPredicate>
           <Node id="42" score="NO">
            <SimplePredicate field="V15" operator="lessOrEqual" value="2562"/>
           </Node>
           <Node id="43" score="YES">
            <SimplePredicate field="V15" operator="greaterThan" value="2562"/>
           </Node>
          </Node>
         </Node>
        </Node>
        <Node id="9">
         <SimplePredicate field="V3" operator="greaterThan" value="0.5825"/>
         <Node id="16">
          <SimplePredicate field="V11" operator="lessOrEqual" value="0.5"/>
          <Node id="30">
           <SimplePredicate field="V2" operator="lessOrEqual" value="107.5"/>
           <Node id="44">
            <SimplePredicate field="V8" operator="lessOrEqual" value="0.2075"/>
            <Node id="64">
             <SimplePredicate field="V3" operator="lessOrEqual" value="11.4175"/>
             <Node id="84" score="YES">
              <SimpleSetPredicate field="V6" booleanOperator="isIn">
               <Array n="9" type="string">&quot;?&quot;   &quot;aa&quot;   &quot;d&quot;   &quot;e&quot;   &quot;j&quot;   &quot;m&quot;   &quot;q&quot;   &quot;r&quot;   &quot;w&quot;</Array>
              </SimpleSetPredicate>
             </Node>
             <Node id="85" score="NO">
              <SimpleSetPredicate field="V6" booleanOperator="isIn">
               <Array n="6" type="string">&quot;c&quot;   &quot;cc&quot;   &quot;ff&quot;   &quot;i&quot;   &quot;k&quot;   &quot;x&quot;</Array>
              </SimpleSetPredicate>
             </Node>
            </Node>
            <Node id="65" score="YES">
             <SimplePredicate field="V3" operator="greaterThan" value="11.4175"/>
            </Node>
           </Node>
           <Node id="45">
            <SimplePredicate field="V8" operator="greaterThan" value="0.2075"/>
            <Node id="66">
             <SimplePredicate field="V8" operator="lessOrEqual" value="0.2925"/>
             <Node id="86">
              <SimplePredicate field="V3" operator="lessOrEqual" value="4.23"/>
              <Node id="98" score="NO">
               <SimplePredicate field="V2" operator="lessOrEqual" value="40.5"/>
              </Node>
              <Node id="99" score="YES">
               <SimplePredicate field="V2" operator="greaterThan" value="40.5"/>
              </Node>
             </Node>
             <Node id="87" score="NO">
              <SimplePredicate field="V3" operator="greaterThan" value="4.23"/>
             </Node>
            </Node>
            <Node id="67">
             <SimplePredicate field="V8" operator="greaterThan" value="0.2925"/>
             <Node id="88">
              <SimplePredicate field="V14" operator="lessOrEqual" value="32"/>
              <Node id="100" score="YES">
               <SimplePredicate field="V3" operator="lessOrEqual" value="7.895"/>
              </Node>
              <Node id="101" score="NO">
               <SimplePredicate field="V3" operator="greaterThan" value="7.895"/>
              </Node>
             </Node>
             <Node id="89" score="NO">
              <SimplePredicate field="V14" operator="greaterThan" value="32"/>
             </Node>
            </Node>
           </Node>
          </Node>
          <Node id="31">
           <SimplePredicate field="V2" operator="greaterThan" value="107.5"/>
           <Node id="46" score="NO">
            <SimplePredicate field="V14" operator="lessOrEqual" value="80"/>
           </Node>
           <Node id="47">
            <SimplePredicate field="V14" operator="greaterThan" value="80"/>
            <Node id="68" score="NO">
             <SimpleSetPredicate field="V9" booleanOperator="isIn">
              <Array n="1" type="string">&quot;f&quot;</Array>
             </SimpleSetPredicate>
            </Node>
            <Node id="69">
             <SimpleSetPredicate field="V9" booleanOperator="isIn">
              <Array n="1" type="string">&quot;t&quot;</Array>
             </SimpleSetPredicate>
             <Node id="90" score="YES">
              <SimpleSetPredicate field="V6" booleanOperator="isIn">
               <Array n="14" type="string">&quot;?&quot;   &quot;aa&quot;   &quot;c&quot;   &quot;cc&quot;   &quot;d&quot;   &quot;e&quot;   &quot;i&quot;   &quot;j&quot;   &quot;k&quot;   &quot;m&quot;   &quot;q&quot;   &quot;r&quot;   &quot;w&quot;   &quot;x&quot;</Array>
              </SimpleSetPredicate>
             </Node>
             <Node id="91" score="NO">
              <SimpleSetPredicate field="V6" booleanOperator="isIn">
               <Array n="1" type="string">&quot;ff&quot;</Array>
              </SimpleSetPredicate>
             </Node>
            </Node>
           </Node>
          </Node>
         </Node>
         <Node id="17">
          <SimplePredicate field="V11" operator="greaterThan" value="0.5"/>
          <Node id="32">
           <SimplePredicate field="V2" operator="lessOrEqual" value="206.5"/>
           <Node id="48" score="NO">
            <SimpleSetPredicate field="V9" booleanOperator="isIn">
             <Array n="1" type="string">&quot;f&quot;</Array>
            </SimpleSetPredicate>
           </Node>
           <Node id="49">
            <SimpleSetPredicate field="V9" booleanOperator="isIn">
             <Array n="1" type="string">&quot;t&quot;</Array>
            </SimpleSetPredicate>
            <Node id="70" score="NO">
             <SimplePredicate field="V3" operator="lessOrEqual" value="1.6875"/>
            </Node>
            <Node id="71" score="YES">
             <SimplePredicate field="V3" operator="greaterThan" value="1.6875"/>
            </Node>
           </Node>
          </Node>
          <Node id="33">
           <SimplePredicate field="V2" operator="greaterThan" value="206.5"/>
           <Node id="50" score="YES">
            <SimplePredicate field="V3" operator="lessOrEqual" value="7.1675"/>
           </Node>
           <Node id="51" score="NO">
            <SimplePredicate field="V3" operator="greaterThan" value="7.1675"/>
           </Node>
          </Node>
         </Node>
        </Node>
       </Node>
       <Node id="5">
        <SimplePredicate field="V8" operator="greaterThan" value="0.6875"/>
        <Node id="10">
         <SimplePredicate field="V11" operator="lessOrEqual" value="1.5"/>
         <Node id="18">
          <SimpleSetPredicate field="V9" booleanOperator="isIn">
           <Array n="1" type="string">&quot;f&quot;</Array>
          </SimpleSetPredicate>
          <Node id="34">
           <SimplePredicate field="V3" operator="lessOrEqual" value="1.5825"/>
           <Node id="52">
            <SimplePredicate field="V14" operator="lessOrEqual" value="88"/>
            <Node id="72" score="YES">
             <SimplePredicate field="V3" operator="lessOrEqual" value="0.955"/>
            </Node>
            <Node id="73">
             <SimplePredicate field="V3" operator="greaterThan" value="0.955"/>
             <Node id="92">
              <SimplePredicate field="V8" operator="lessOrEqual" value="3.625"/>
              <Node id="102">
               <SimplePredicate field="V15" operator="lessOrEqual" value="4"/>
               <Node id="106" score="NO">
                <SimplePredicate field="V2" operator="lessOrEqual" value="222"/>
               </Node>
               <Node id="107" score="YES">
                <SimplePredicate field="V2" operator="greaterThan" value="222"/>
               </Node>
              </Node>
              <Node id="103" score="YES">
               <SimplePredicate field="V15" operator="greaterThan" value="4"/>
              </Node>
             </Node>
             <Node id="93" score="NO">
              <SimplePredicate field="V8" operator="greaterThan" value="3.625"/>
             </Node>
            </Node>
           </Node>
           <Node id="53" score="NO">
            <SimplePredicate field="V14" operator="greaterThan" value="88"/>
           </Node>
          </Node>
          <Node id="35">
           <SimplePredicate field="V3" operator="greaterThan" value="1.5825"/>
           <Node id="54">
            <SimplePredicate field="V2" operator="lessOrEqual" value="78"/>
            <Node id="74" score="NO">
             <SimplePredicate field="V8" operator="lessOrEqual" value="2.23"/>
            </Node>
            <Node id="75" score="YES">
             <SimplePredicate field="V8" operator="greaterThan" value="2.23"/>
            </Node>
           </Node>
           <Node id="55" score="NO">
            <SimplePredicate field="V2" operator="greaterThan" value="78"/>
           </Node>
          </Node>
         </Node>
         <Node id="19">
          <SimpleSetPredicate field="V9" booleanOperator="isIn">
           <Array n="1" type="string">&quot;t&quot;</Array>
          </SimpleSetPredicate>
          <Node id="36">
           <SimpleSetPredicate field="V6" booleanOperator="isIn">
            <Array n="11" type="string">&quot;?&quot;   &quot;aa&quot;   &quot;c&quot;   &quot;e&quot;   &quot;ff&quot;   &quot;i&quot;   &quot;j&quot;   &quot;q&quot;   &quot;r&quot;   &quot;w&quot;   &quot;x&quot;</Array>
           </SimpleSetPredicate>
           <Node id="56">
            <SimplePredicate field="V2" operator="lessOrEqual" value="280"/>
            <Node id="76">
             <SimplePredicate field="V2" operator="lessOrEqual" value="100.5"/>
             <Node id="94" score="YES">
              <SimplePredicate field="V3" operator="lessOrEqual" value="10.75"/>
             </Node>
             <Node id="95" score="NO">
              <SimplePredicate field="V3" operator="greaterThan" value="10.75"/>
             </Node>
            </Node>
            <Node id="77" score="YES">
             <SimplePredicate field="V2" operator="greaterThan" value="100.5"/>
            </Node>
           </Node>
           <Node id="57">
            <SimplePredicate field="V2" operator="greaterThan" value="280"/>
            <Node id="78" score="NO">
             <SimplePredicate field="V11" operator="lessOrEqual" value="0.5"/>
            </Node>
            <Node id="79" score="YES">
             <SimplePredicate field="V11" operator="greaterThan" value="0.5"/>
            </Node>
           </Node>
          </Node>
          <Node id="37">
           <SimpleSetPredicate field="V6" booleanOperator="isIn">
            <Array n="4" type="string">&quot;cc&quot;   &quot;d&quot;   &quot;k&quot;   &quot;m&quot;</Array>
           </SimpleSetPredicate>
           <Node id="58" score="NO">
            <SimplePredicate field="V15" operator="lessOrEqual" value="1010"/>
           </Node>
           <Node id="59" score="YES">
            <SimplePredicate field="V15" operator="greaterThan" value="1010"/>
           </Node>
          </Node>
         </Node>
        </Node>
        <Node id="11">
         <SimplePredicate field="V11" operator="greaterThan" value="1.5"/>
         <Node id="20">
          <SimplePredicate field="V15" operator="lessOrEqual" value="598.5"/>
          <Node id="38" score="YES">
           <SimplePredicate field="V14" operator="lessOrEqual" value="32"/>
          </Node>
          <Node id="39">
           <SimplePredicate field="V14" operator="greaterThan" value="32"/>
           <Node id="60">
            <SimplePredicate field="V8" operator="lessOrEqual" value="2.4575"/>
            <Node id="80" score="NO">
             <SimplePredicate field="V2" operator="lessOrEqual" value="51.5"/>
            </Node>
            <Node id="81" score="YES">
             <SimplePredicate field="V2" operator="greaterThan" value="51.5"/>
            </Node>
           </Node>
           <Node id="61">
            <SimplePredicate field="V8" operator="greaterThan" value="2.4575"/>
            <Node id="82" score="YES">
             <SimpleSetPredicate field="V6" booleanOperator="isIn">
              <Array n="11" type="string">&quot;?&quot;   &quot;aa&quot;   &quot;cc&quot;   &quot;d&quot;   &quot;e&quot;   &quot;i&quot;   &quot;j&quot;   &quot;m&quot;   &quot;q&quot;   &quot;r&quot;   &quot;x&quot;</Array>
             </SimpleSetPredicate>
            </Node>
            <Node id="83">
             <SimpleSetPredicate field="V6" booleanOperator="isIn">
              <Array n="4" type="string">&quot;c&quot;   &quot;ff&quot;   &quot;k&quot;   &quot;w&quot;</Array>
             </SimpleSetPredicate>
             <Node id="96">
              <SimplePredicate field="V14" operator="lessOrEqual" value="48.5"/>
              <Node id="104" score="YES">
               <SimplePredicate field="V8" operator="lessOrEqual" value="5.25"/>
              </Node>
              <Node id="105" score="NO">
               <SimplePredicate field="V8" operator="greaterThan" value="5.25"/>
              </Node>
             </Node>
             <Node id="97" score="NO">
              <SimplePredicate field="V14" operator="greaterThan" value="48.5"/>
             </Node>
            </Node>
           </Node>
          </Node>
         </Node>
         <Node id="21" score="YES">
          <SimplePredicate field="V15" operator="greaterThan" value="598.5"/>
         </Node>
        </Node>
       </Node>
      </Node>
      <Node id="3">
       <SimplePredicate field="V3" operator="greaterThan" value="13.25"/>
       <Node id="6">
        <SimplePredicate field="V14" operator="lessOrEqual" value="160"/>
        <Node id="12">
         <SimpleSetPredicate field="V9" booleanOperator="isIn">
          <Array n="1" type="string">&quot;f&quot;</Array>
         </SimpleSetPredicate>
         <Node id="22" score="YES">
          <SimplePredicate field="V8" operator="lessOrEqual" value="0.02"/>
         </Node>
         <Node id="23" score="NO">
          <SimplePredicate field="V8" operator="greaterThan" value="0.02"/>
         </Node>
        </Node>
        <Node id="13">
         <SimpleSetPredicate field="V9" booleanOperator="isIn">
          <Array n="1" type="string">&quot;t&quot;</Array>
         </SimpleSetPredicate>
         <Node id="24" score="YES">
          <SimplePredicate field="V8" operator="lessOrEqual" value="0.8125"/>
         </Node>
         <Node id="25" score="YES">
          <SimplePredicate field="V8" operator="greaterThan" value="0.8125"/>
         </Node>
        </Node>
       </Node>
       <Node id="7" score="NO">
        <SimplePredicate field="V14" operator="greaterThan" value="160"/>
       </Node>
      </Node>
     </Node>
    </TreeModel>
   </Segment>
   <Segment id="5">
    <True/>
    <TreeModel modelName="CreditAppPredictionRForest" functionName="classification" algorithmName="randomForest" splitCharacteristic="binarySplit">
     <MiningSchema>
      <MiningField name="V16" usageType="predicted" invalidValueTreatment="asIs"/>
      <MiningField name="V2" usageType="active" invalidValueTreatment="asIs"/>
      <MiningField name="V3" usageType="active" invalidValueTreatment="asIs"/>
      <MiningField name="V6" usageType="active" invalidValueTreatment="asIs"/>
      <MiningField name="V8" usageType="active" invalidValueTreatment="asIs"/>
      <MiningField name="V9" usageType="active" invalidValueTreatment="asIs"/>
      <MiningField name="V11" usageType="active" invalidValueTreatment="asIs"/>
      <MiningField name="V14" usageType="active" invalidValueTreatment="asIs"/>
      <MiningField name="V15" usageType="active" invalidValueTreatment="asIs"/>
     </MiningSchema>
     <Node id="1">
      <True/>
      <Node id="2">
       <SimpleSetPredicate field="V9" booleanOperator="isIn">
        <Array n="1" type="string">&quot;f&quot;</Array>
       </SimpleSetPredicate>
       <Node id="4">
        <SimplePredicate field="V8" operator="lessOrEqual" value="0.0625"/>
        <Node id="8">
         <SimplePredicate field="V3" operator="lessOrEqual" value="0.165"/>
         <Node id="16">
          <SimplePredicate field="V8" operator="lessOrEqual" value="0.02"/>
          <Node id="30" score="YES">
           <SimpleSetPredicate field="V6" booleanOperator="isIn">
            <Array n="14" type="string">&quot;aa&quot;   &quot;c&quot;   &quot;cc&quot;   &quot;d&quot;   &quot;e&quot;   &quot;ff&quot;   &quot;i&quot;   &quot;j&quot;   &quot;k&quot;   &quot;m&quot;   &quot;q&quot;   &quot;r&quot;   &quot;w&quot;   &quot;x&quot;</Array>
           </SimpleSetPredicate>
          </Node>
          <Node id="31">
           <SimpleSetPredicate field="V6" booleanOperator="isIn">
            <Array n="1" type="string">&quot;?&quot;</Array>
           </SimpleSetPredicate>
           <Node id="50" score="NO">
            <SimplePredicate field="V2" operator="lessOrEqual" value="63.5"/>
           </Node>
           <Node id="51" score="YES">
            <SimplePredicate field="V2" operator="greaterThan" value="63.5"/>
           </Node>
          </Node>
         </Node>
         <Node id="17" score="YES">
          <SimplePredicate field="V8" operator="greaterThan" value="0.02"/>
         </Node>
        </Node>
        <Node id="9" score="NO">
         <SimplePredicate field="V3" operator="greaterThan" value="0.165"/>
        </Node>
       </Node>
       <Node id="5">
        <SimplePredicate field="V8" operator="greaterThan" value="0.0625"/>
        <Node id="10">
         <SimplePredicate field="V2" operator="lessOrEqual" value="183.5"/>
         <Node id="18">
          <SimplePredicate field="V14" operator="lessOrEqual" value="36"/>
          <Node id="32">
           <SimplePredicate field="V8" operator="lessOrEqual" value="0.2075"/>
           <Node id="52" score="NO">
            <SimplePredicate field="V14" operator="lessOrEqual" value="17.5"/>
           </Node>
           <Node id="53">
            <SimplePredicate field="V14" operator="greaterThan" value="17.5"/>
            <Node id="74" score="YES">
             <SimpleSetPredicate field="V6" booleanOperator="isIn">
              <Array n="13" type="string">&quot;?&quot;   &quot;aa&quot;   &quot;c&quot;   &quot;cc&quot;   &quot;d&quot;   &quot;e&quot;   &quot;i&quot;   &quot;j&quot;   &quot;k&quot;   &quot;m&quot;   &quot;q&quot;   &quot;r&quot;   &quot;x&quot;</Array>
             </SimpleSetPredicate>
            </Node>
            <Node id="75" score="NO">
             <SimpleSetPredicate field="V6" booleanOperator="isIn">
              <Array n="2" type="string">&quot;ff&quot;   &quot;w&quot;</Array>
             </SimpleSetPredicate>
            </Node>
           </Node>
          </Node>
          <Node id="33">
           <SimplePredicate field="V8" operator="greaterThan" value="0.2075"/>
           <Node id="54">
            <SimpleSetPredicate field="V6" booleanOperator="isIn">
             <Array n="10" type="string">&quot;?&quot;   &quot;c&quot;   &quot;d&quot;   &quot;e&quot;   &quot;ff&quot;   &quot;j&quot;   &quot;q&quot;   &quot;r&quot;   &quot;w&quot;   &quot;x&quot;</Array>
            </SimpleSetPredicate>
            <Node id="76">
             <SimplePredicate field="V14" operator="lessOrEqual" value="7"/>
             <Node id="88">
              <SimplePredicate field="V15" operator="lessOrEqual" value="1"/>
              <Node id="94" score="YES">
               <SimplePredicate field="V3" operator="lessOrEqual" value="3.5825"/>
              </Node>
              <Node id="95" score="NO">
               <SimplePredicate field="V3" operator="greaterThan" value="3.5825"/>
              </Node>
             </Node>
             <Node id="89" score="NO">
              <SimplePredicate field="V15" operator="greaterThan" value="1"/>
             </Node>
            </Node>
            <Node id="77" score="NO">
             <SimplePredicate field="V14" operator="greaterThan" value="7"/>
            </Node>
           </Node>
           <Node id="55" score="NO">
            <SimpleSetPredicate field="V6" booleanOperator="isIn">
             <Array n="5" type="string">&quot;aa&quot;   &quot;cc&quot;   &quot;i&quot;   &quot;k&quot;   &quot;m&quot;</Array>
            </SimpleSetPredicate>
           </Node>
          </Node>
         </Node>
         <Node id="19">
          <SimplePredicate field="V14" operator="greaterThan" value="36"/>
          <Node id="34">
           <SimpleSetPredicate field="V6" booleanOperator="isIn">
            <Array n="3" type="string">&quot;?&quot;   &quot;j&quot;   &quot;q&quot;</Array>
           </SimpleSetPredicate>
           <Node id="56" score="NO">
            <SimplePredicate field="V15" operator="lessOrEqual" value="21.5"/>
           </Node>
           <Node id="57" score="YES">
            <SimplePredicate field="V15" operator="greaterThan" value="21.5"/>
           </Node>
          </Node>
          <Node id="35" score="NO">
           <SimpleSetPredicate field="V6" booleanOperator="isIn">
            <Array n="12" type="string">&quot;aa&quot;   &quot;c&quot;   &quot;cc&quot;   &quot;d&quot;   &quot;e&quot;   &quot;ff&quot;   &quot;i&quot;   &quot;k&quot;   &quot;m&quot;   &quot;r&quot;   &quot;w&quot;   &quot;x&quot;</Array>
           </SimpleSetPredicate>
          </Node>
         </Node>
        </Node>
        <Node id="11">
         <SimplePredicate field="V2" operator="greaterThan" value="183.5"/>
         <Node id="20">
          <SimpleSetPredicate field="V6" booleanOperator="isIn">
           <Array n="6" type="string">&quot;?&quot;   &quot;c&quot;   &quot;cc&quot;   &quot;e&quot;   &quot;j&quot;   &quot;r&quot;</Array>
          </SimpleSetPredicate>
          <Node id="36" score="YES">
           <SimplePredicate field="V3" operator="lessOrEqual" value="0.54"/>
          </Node>
          <Node id="37" score="NO">
           <SimplePredicate field="V3" operator="greaterThan" value="0.54"/>
          </Node>
         </Node>
         <Node id="21">
          <SimpleSetPredicate field="V6" booleanOperator="isIn">
           <Array n="9" type="string">&quot;aa&quot;   &quot;d&quot;   &quot;ff&quot;   &quot;i&quot;   &quot;k&quot;   &quot;m&quot;   &quot;q&quot;   &quot;w&quot;   &quot;x&quot;</Array>
          </SimpleSetPredicate>
          <Node id="38" score="NO">
           <SimplePredicate field="V2" operator="lessOrEqual" value="247.5"/>
          </Node>
          <Node id="39">
           <SimplePredicate field="V2" operator="greaterThan" value="247.5"/>
           <Node id="58">
            <SimplePredicate field="V3" operator="lessOrEqual" value="1.77"/>
            <Node id="78" score="YES">
             <SimpleSetPredicate field="V6" booleanOperator="isIn">
              <Array n="12" type="string">&quot;?&quot;   &quot;c&quot;   &quot;cc&quot;   &quot;d&quot;   &quot;e&quot;   &quot;ff&quot;   &quot;i&quot;   &quot;j&quot;   &quot;k&quot;   &quot;r&quot;   &quot;w&quot;   &quot;x&quot;</Array>
             </SimpleSetPredicate>
            </Node>
            <Node id="79" score="NO">
             <SimpleSetPredicate field="V6" booleanOperator="isIn">
              <Array n="3" type="string">&quot;aa&quot;   &quot;m&quot;   &quot;q&quot;</Array>
             </SimpleSetPredicate>
            </Node>
           </Node>
           <Node id="59" score="NO">
            <SimplePredicate field="V3" operator="greaterThan" value="1.77"/>
           </Node>
          </Node>
         </Node>
        </Node>
       </Node>
      </Node>
      <Node id="3">
       <SimpleSetPredicate field="V9" booleanOperator="isIn">
        <Array n="1" type="string">&quot;t&quot;</Array>
       </SimpleSetPredicate>
       <Node id="6">
        <SimplePredicate field="V15" operator="lessOrEqual" value="222.5"/>
        <Node id="12">
         <SimpleSetPredicate field="V6" booleanOperator="isIn">
          <Array n="9" type="string">&quot;?&quot;   &quot;aa&quot;   &quot;c&quot;   &quot;cc&quot;   &quot;e&quot;   &quot;q&quot;   &quot;r&quot;   &quot;w&quot;   &quot;x&quot;</Array>
         </SimpleSetPredicate>
         <Node id="22">
          <SimplePredicate field="V8" operator="lessOrEqual" value="0.855"/>
          <Node id="40">
           <SimplePredicate field="V11" operator="lessOrEqual" value="2"/>
           <Node id="60">
            <SimplePredicate field="V14" operator="lessOrEqual" value="67.5"/>
            <Node id="80" score="YES">
             <SimplePredicate field="V14" operator="lessOrEqual" value="39.5"/>
            </Node>
            <Node id="81" score="NO">
             <SimplePredicate field="V14" operator="greaterThan" value="39.5"/>
            </Node>
           </Node>
           <Node id="61">
            <SimplePredicate field="V14" operator="greaterThan" value="67.5"/>
            <Node id="82" score="NO">
             <SimplePredicate field="V2" operator="lessOrEqual" value="72.5"/>
            </Node>
            <Node id="83">
             <SimplePredicate field="V2" operator="greaterThan" value="72.5"/>
             <Node id="90">
              <SimplePredicate field="V2" operator="lessOrEqual" value="297.5"/>
              <Node id="96" score="YES">
               <SimplePredicate field="V14" operator="lessOrEqual" value="126"/>
              </Node>
              <Node id="97" score="NO">
               <SimplePredicate field="V14" operator="greaterThan" value="126"/>
              </Node>
             </Node>
             <Node id="91" score="YES">
              <SimplePredicate field="V2" operator="greaterThan" value="297.5"/>
             </Node>
            </Node>
           </Node>
          </Node>
          <Node id="41">
           <SimplePredicate field="V11" operator="greaterThan" value="2"/>
           <Node id="62" score="YES">
            <SimpleSetPredicate field="V6" booleanOperator="isIn">
             <Array n="14" type="string">&quot;?&quot;   &quot;aa&quot;   &quot;c&quot;   &quot;cc&quot;   &quot;d&quot;   &quot;ff&quot;   &quot;i&quot;   &quot;j&quot;   &quot;k&quot;   &quot;m&quot;   &quot;q&quot;   &quot;r&quot;   &quot;w&quot;   &quot;x&quot;</Array>
            </SimpleSetPredicate>
           </Node>
           <Node id="63" score="NO">
            <SimpleSetPredicate field="V6" booleanOperator="isIn">
             <Array n="1" type="string">&quot;e&quot;</Array>
            </SimpleSetPredicate>
           </Node>
          </Node>
         </Node>
         <Node id="23">
          <SimplePredicate field="V8" operator="greaterThan" value="0.855"/>
          <Node id="42" score="YES">
           <SimplePredicate field="V8" operator="lessOrEqual" value="2.3525"/>
          </Node>
          <Node id="43">
           <SimplePredicate field="V8" operator="greaterThan" value="2.3525"/>
           <Node id="64" score="NO">
            <SimplePredicate field="V8" operator="lessOrEqual" value="2.7075"/>
           </Node>
           <Node id="65">
            <SimplePredicate field="V8" operator="greaterThan" value="2.7075"/>
            <Node id="84" score="YES">
             <SimplePredicate field="V11" operator="lessOrEqual" value="0.5"/>
            </Node>
            <Node id="85">
             <SimplePredicate field="V11" operator="greaterThan" value="0.5"/>
             <Node id="92" score="YES">
              <SimplePredicate field="V14" operator="lessOrEqual" value="91"/>
             </Node>
             <Node id="93">
              <SimplePredicate field="V14" operator="greaterThan" value="91"/>
              <Node id="98" score="NO">
               <SimplePredicate field="V8" operator="lessOrEqual" value="4.25"/>
              </Node>
              <Node id="99" score="YES">
               <SimplePredicate field="V8" operator="greaterThan" value="4.25"/>
              </Node>
             </Node>
            </Node>
           </Node>
          </Node>
         </Node>
        </Node>
        <Node id="13">
         <SimpleSetPredicate field="V6" booleanOperator="isIn">
          <Array n="6" type="string">&quot;d&quot;   &quot;ff&quot;   &quot;i&quot;   &quot;j&quot;   &quot;k&quot;   &quot;m&quot;</Array>
         </SimpleSetPredicate>
         <Node id="24">
          <SimplePredicate field="V14" operator="lessOrEqual" value="31"/>
          <Node id="44" score="YES">
           <SimpleSetPredicate field="V6" booleanOperator="isIn">
            <Array n="13" type="string">&quot;?&quot;   &quot;aa&quot;   &quot;c&quot;   &quot;cc&quot;   &quot;e&quot;   &quot;ff&quot;   &quot;j&quot;   &quot;k&quot;   &quot;m&quot;   &quot;q&quot;   &quot;r&quot;   &quot;w&quot;   &quot;x&quot;</Array>
           </SimpleSetPredicate>
          </Node>
          <Node id="45">
           <SimpleSetPredicate field="V6" booleanOperator="isIn">
            <Array n="2" type="string">&quot;d&quot;   &quot;i&quot;</Array>
           </SimpleSetPredicate>
           <Node id="66" score="YES">
            <SimplePredicate field="V2" operator="lessOrEqual" value="153.5"/>
           </Node>
           <Node id="67" score="NO">
            <SimplePredicate field="V2" operator="greaterThan" value="153.5"/>
           </Node>
          </Node>
         </Node>
         <Node id="25">
          <SimplePredicate field="V14" operator="greaterThan" value="31"/>
          <Node id="46">
           <SimplePredicate field="V8" operator="lessOrEqual" value="0.375"/>
           <Node id="68" score="NO">
            <SimplePredicate field="V11" operator="lessOrEqual" value="5"/>
           </Node>
           <Node id="69" score="YES">
            <SimplePredicate field="V11" operator="greaterThan" value="5"/>
           </Node>
          </Node>
          <Node id="47">
           <SimplePredicate field="V8" operator="greaterThan" value="0.375"/>
           <Node id="70" score="NO">
            <SimplePredicate field="V2" operator="lessOrEqual" value="201"/>
           </Node>
           <Node id="71">
            <SimplePredicate field="V2" operator="greaterThan" value="201"/>
            <Node id="86" score="YES">
             <SimplePredicate field="V3" operator="lessOrEqual" value="0.3525"/>
            </Node>
            <Node id="87" score="NO">
             <SimplePredicate field="V3" operator="greaterThan" value="0.3525"/>
            </Node>
           </Node>
          </Node>
         </Node>
        </Node>
       </Node>
       <Node id="7">
        <SimplePredicate field="V15" operator="greaterThan" value="222.5"/>
        <Node id="14">
         <SimplePredicate field="V11" operator="lessOrEqual" value="0.5"/>
         <Node id="26" score="YES">
          <SimpleSetPredicate field="V6" booleanOperator="isIn">
           <Array n="14" type="string">&quot;?&quot;   &quot;aa&quot;   &quot;cc&quot;   &quot;d&quot;   &quot;e&quot;   &quot;ff&quot;   &quot;i&quot;   &quot;j&quot;   &quot;k&quot;   &quot;m&quot;   &quot;q&quot;   &quot;r&quot;   &quot;w&quot;   &quot;x&quot;</Array>
          </SimpleSetPredicate>
         </Node>
         <Node id="27" score="NO">
          <SimpleSetPredicate field="V6" booleanOperator="isIn">
           <Array n="1" type="string">&quot;c&quot;</Array>
          </SimpleSetPredicate>
         </Node>
        </Node>
        <Node id="15">
         <SimplePredicate field="V11" operator="greaterThan" value="0.5"/>
         <Node id="28" score="YES">
          <SimpleSetPredicate field="V6" booleanOperator="isIn">
           <Array n="14" type="string">&quot;?&quot;   &quot;aa&quot;   &quot;c&quot;   &quot;cc&quot;   &quot;d&quot;   &quot;e&quot;   &quot;ff&quot;   &quot;i&quot;   &quot;j&quot;   &quot;k&quot;   &quot;m&quot;   &quot;q&quot;   &quot;r&quot;   &quot;x&quot;</Array>
          </SimpleSetPredicate>
         </Node>
         <Node id="29">
          <SimpleSetPredicate field="V6" booleanOperator="isIn">
           <Array n="1" type="string">&quot;w&quot;</Array>
          </SimpleSetPredicate>
          <Node id="48" score="YES">
           <SimplePredicate field="V11" operator="lessOrEqual" value="4"/>
          </Node>
          <Node id="49">
           <SimplePredicate field="V11" operator="greaterThan" value="4"/>
           <Node id="72" score="NO">
            <SimplePredicate field="V3" operator="lessOrEqual" value="0.96"/>
           </Node>
           <Node id="73" score="YES">
            <SimplePredicate field="V3" operator="greaterThan" value="0.96"/>
           </Node>
          </Node>
         </Node>
        </Node>
       </Node>
      </Node>
     </Node>
    </TreeModel>
   </Segment>
   <Segment id="6">
    <True/>
    <TreeModel modelName="CreditAppPredictionRForest" functionName="classification" algorithmName="randomForest" splitCharacteristic="binarySplit">
     <MiningSchema>
      <MiningField name="V16" usageType="predicted" invalidValueTreatment="asIs"/>
      <MiningField name="V2" usageType="active" invalidValueTreatment="asIs"/>
      <MiningField name="V3" usageType="active" invalidValueTreatment="asIs"/>
      <MiningField name="V6" usageType="active" invalidValueTreatment="asIs"/>
      <MiningField name="V8" usageType="active" invalidValueTreatment="asIs"/>
      <MiningField name="V9" usageType="active" invalidValueTreatment="asIs"/>
      <MiningField name="V11" usageType="active" invalidValueTreatment="asIs"/>
      <MiningField name="V14" usageType="active" invalidValueTreatment="asIs"/>
      <MiningField name="V15" usageType="active" invalidValueTreatment="asIs"/>
     </MiningSchema>
     <Node id="1">
      <True/>
      <Node id="2">
       <SimpleSetPredicate field="V9" booleanOperator="isIn">
        <Array n="1" type="string">&quot;f&quot;</Array>
       </SimpleSetPredicate>
       <Node id="4">
        <SimplePredicate field="V11" operator="lessOrEqual" value="0.5"/>
        <Node id="8">
         <SimplePredicate field="V15" operator="lessOrEqual" value="52250"/>
         <Node id="14" score="NO">
          <SimplePredicate field="V2" operator="lessOrEqual" value="55"/>
         </Node>
         <Node id="15">
          <SimplePredicate field="V2" operator="greaterThan" value="55"/>
          <Node id="22" score="YES">
           <SimplePredicate field="V3" operator="lessOrEqual" value="0.1675"/>
          </Node>
          <Node id="23">
           <SimplePredicate field="V3" operator="greaterThan" value="0.1675"/>
           <Node id="30">
            <SimpleSetPredicate field="V6" booleanOperator="isIn">
             <Array n="4" type="string">&quot;c&quot;   &quot;cc&quot;   &quot;r&quot;   &quot;x&quot;</Array>
            </SimpleSetPredicate>
            <Node id="40">
             <SimplePredicate field="V8" operator="lessOrEqual" value="2.125"/>
             <Node id="56">
              <SimplePredicate field="V8" operator="lessOrEqual" value="0.4375"/>
              <Node id="74">
               <SimplePredicate field="V14" operator="lessOrEqual" value="37"/>
               <Node id="88" score="YES">
                <SimpleSetPredicate field="V6" booleanOperator="isIn">
                 <Array n="14" type="string">&quot;?&quot;   &quot;aa&quot;   &quot;c&quot;   &quot;d&quot;   &quot;e&quot;   &quot;ff&quot;   &quot;i&quot;   &quot;j&quot;   &quot;k&quot;   &quot;m&quot;   &quot;q&quot;   &quot;r&quot;   &quot;w&quot;   &quot;x&quot;</Array>
                </SimpleSetPredicate>
               </Node>
               <Node id="89" score="NO">
                <SimpleSetPredicate field="V6" booleanOperator="isIn">
                 <Array n="1" type="string">&quot;cc&quot;</Array>
                </SimpleSetPredicate>
               </Node>
              </Node>
              <Node id="75">
               <SimplePredicate field="V14" operator="greaterThan" value="37"/>
               <Node id="90" score="NO">
                <SimplePredicate field="V15" operator="lessOrEqual" value="22.5"/>
               </Node>
               <Node id="91" score="YES">
                <SimplePredicate field="V15" operator="greaterThan" value="22.5"/>
               </Node>
              </Node>
             </Node>
             <Node id="57" score="NO">
              <SimplePredicate field="V8" operator="greaterThan" value="0.4375"/>
             </Node>
            </Node>
            <Node id="41">
             <SimplePredicate field="V8" operator="greaterThan" value="2.125"/>
             <Node id="58" score="YES">
              <SimplePredicate field="V2" operator="lessOrEqual" value="126"/>
             </Node>
             <Node id="59" score="NO">
              <SimplePredicate field="V2" operator="greaterThan" value="126"/>
             </Node>
            </Node>
           </Node>
           <Node id="31">
            <SimpleSetPredicate field="V6" booleanOperator="isIn">
             <Array n="11" type="string">&quot;?&quot;   &quot;aa&quot;   &quot;d&quot;   &quot;e&quot;   &quot;ff&quot;   &quot;i&quot;   &quot;j&quot;   &quot;k&quot;   &quot;m&quot;   &quot;q&quot;   &quot;w&quot;</Array>
            </SimpleSetPredicate>
            <Node id="42">
             <SimplePredicate field="V3" operator="lessOrEqual" value="1.5825"/>
             <Node id="60">
              <SimplePredicate field="V15" operator="lessOrEqual" value="47.5"/>
              <Node id="76">
               <SimplePredicate field="V3" operator="lessOrEqual" value="1.52"/>
               <Node id="92" score="NO">
                <SimplePredicate field="V8" operator="lessOrEqual" value="1.25"/>
               </Node>
               <Node id="93">
                <SimplePredicate field="V8" operator="greaterThan" value="1.25"/>
                <Node id="104" score="NO">
                 <SimplePredicate field="V15" operator="lessOrEqual" value="4"/>
                </Node>
                <Node id="105" score="YES">
                 <SimplePredicate field="V15" operator="greaterThan" value="4"/>
                </Node>
               </Node>
              </Node>
              <Node id="77">
               <SimplePredicate field="V3" operator="greaterThan" value="1.52"/>
               <Node id="94" score="NO">
                <SimplePredicate field="V2" operator="lessOrEqual" value="180"/>
               </Node>
               <Node id="95" score="YES">
                <SimplePredicate field="V2" operator="greaterThan" value="180"/>
               </Node>
              </Node>
             </Node>
             <Node id="61" score="NO">
              <SimplePredicate field="V15" operator="greaterThan" value="47.5"/>
             </Node>
            </Node>
            <Node id="43">
             <SimplePredicate field="V3" operator="greaterThan" value="1.5825"/>
             <Node id="62" score="NO">
              <SimplePredicate field="V15" operator="lessOrEqual" value="1951"/>
             </Node>
             <Node id="63">
              <SimplePredicate field="V15" operator="greaterThan" value="1951"/>
              <Node id="78" score="YES">
               <SimplePredicate field="V8" operator="lessOrEqual" value="0.0625"/>
              </Node>
              <Node id="79" score="NO">
               <SimplePredicate field="V8" operator="greaterThan" value="0.0625"/>
              </Node>
             </Node>
            </Node>
           </Node>
          </Node>
         </Node>
        </Node>
        <Node id="9" score="YES">
         <SimplePredicate field="V15" operator="greaterThan" value="52250"/>
        </Node>
       </Node>
       <Node id="5" score="NO">
        <SimplePredicate field="V11" operator="greaterThan" value="0.5"/>
       </Node>
      </Node>
      <Node id="3">
       <SimpleSetPredicate field="V9" booleanOperator="isIn">
        <Array n="1" type="string">&quot;t&quot;</Array>
       </SimpleSetPredicate>
       <Node id="6">
        <SimplePredicate field="V3" operator="lessOrEqual" value="2.605"/>
        <Node id="10">
         <SimplePredicate field="V15" operator="lessOrEqual" value="173.5"/>
         <Node id="16">
          <SimplePredicate field="V8" operator="lessOrEqual" value="5.625"/>
          <Node id="24">
           <SimplePredicate field="V15" operator="lessOrEqual" value="13"/>
           <Node id="32">
            <SimpleSetPredicate field="V6" booleanOperator="isIn">
             <Array n="10" type="string">&quot;?&quot;   &quot;cc&quot;   &quot;d&quot;   &quot;e&quot;   &quot;i&quot;   &quot;j&quot;   &quot;q&quot;   &quot;r&quot;   &quot;w&quot;   &quot;x&quot;</Array>
            </SimpleSetPredicate>
            <Node id="44">
             <SimplePredicate field="V3" operator="lessOrEqual" value="1.73"/>
             <Node id="64">
              <SimplePredicate field="V15" operator="lessOrEqual" value="1.5"/>
              <Node id="80" score="YES">
               <SimpleSetPredicate field="V6" booleanOperator="isIn">
